digraph Tree {
node [shape=box, style="filled, rounded", color="black", fontname=helvetica] ;
edge [fontname=helvetica] ;
0 [label="gender <= 0.5\ngini = 0.459\nsamples = 216\nvalue = [77, 139]", fillcolor="#399de572"] ;
1 [label="fare <= 10.481\ngini = 0.114\nsamples = 99\nvalue = [6, 93]", fillcolor="#399de5ef"] ;
0 -> 1 [labeldistance=2.5, labelangle=45, headlabel="True"] ;
2 [label="gini = 0.0\nsamples = 2\nvalue = [2, 0]", fillcolor="#e58139ff"] ;
1 -> 2 ;
3 [label="fare <= 35.34\ngini = 0.079\nsamples = 97\nvalue = [4, 93]", fillcolor="#399de5f4"] ;
1 -> 3 ;
4 [label="fare <= 28.217\ngini = 0.278\nsamples = 18\nvalue = [3, 15]", fillcolor="#399de5cc"] ;
3 -> 4 ;
5 [label="age <= 53.0\ngini = 0.124\nsamples = 15\nvalue = [1, 14]", fillcolor="#399de5ed"] ;
4 -> 5 ;
6 [label="gini = 0.0\nsamples = 13\nvalue = [0, 13]", fillcolor="#399de5ff"] ;
5 -> 6 ;
7 [label="sibsp <= 0.5\ngini = 0.5\nsamples = 2\nvalue = [1, 1]", fillcolor="#e5813900"] ;
5 -> 7 ;
8 [label="gini = 0.0\nsamples = 1\nvalue = [1, 0]", fillcolor="#e58139ff"] ;
7 -> 8 ;
9 [label="gini = 0.0\nsamples = 1\nvalue = [0, 1]", fillcolor="#399de5ff"] ;
7 -> 9 ;
10 [label="embarked_S <= 0.5\ngini = 0.444\nsamples = 3\nvalue = [2, 1]", fillcolor="#e581397f"] ;
4 -> 10 ;
11 [label="gini = 0.0\nsamples = 2\nvalue = [2, 0]", fillcolor="#e58139ff"] ;
10 -> 11 ;
12 [label="gini = 0.0\nsamples = 1\nvalue = [0, 1]", fillcolor="#399de5ff"] ;
10 -> 12 ;
13 [label="parch <= 1.5\ngini = 0.025\nsamples = 79\nvalue = [1, 78]", fillcolor="#399de5fc"] ;
3 -> 13 ;
14 [label="gini = 0.0\nsamples = 65\nvalue = [0, 65]", fillcolor="#399de5ff"] ;
13 -> 14 ;
15 [label="age <= 24.5\ngini = 0.133\nsamples = 14\nvalue = [1, 13]", fillcolor="#399de5eb"] ;
13 -> 15 ;
16 [label="gini = 0.0\nsamples = 7\nvalue = [0, 7]", fillcolor="#399de5ff"] ;
15 -> 16 ;
17 [label="age <= 28.0\ngini = 0.245\nsamples = 7\nvalue = [1, 6]", fillcolor="#399de5d4"] ;
15 -> 17 ;
18 [label="gini = 0.0\nsamples = 1\nvalue = [1, 0]", fillcolor="#e58139ff"] ;
17 -> 18 ;
19 [label="gini = 0.0\nsamples = 6\nvalue = [0, 6]", fillcolor="#399de5ff"] ;
17 -> 19 ;
20 [label="age <= 17.5\ngini = 0.477\nsamples = 117\nvalue = [71, 46]", fillcolor="#e581395a"] ;
0 -> 20 [labeldistance=2.5, labelangle=-45, headlabel="False"] ;
21 [label="gini = 0.0\nsamples = 10\nvalue = [0, 10]", fillcolor="#399de5ff"] ;
20 -> 21 ;
22 [label="fare <= 58.875\ngini = 0.447\nsamples = 107\nvalue = [71, 36]", fillcolor="#e581397e"] ;
20 -> 22 ;
23 [label="fare <= 54.271\ngini = 0.488\nsamples = 64\nvalue = [37, 27]", fillcolor="#e5813945"] ;
22 -> 23 ;
24 [label="age <= 36.25\ngini = 0.473\nsamples = 60\nvalue = [37, 23]", fillcolor="#e5813960"] ;
23 -> 24 ;
25 [label="age <= 19.5\ngini = 0.49\nsamples = 21\nvalue = [9, 12]", fillcolor="#399de540"] ;
24 -> 25 ;
26 [label="gini = 0.0\nsamples = 3\nvalue = [3, 0]", fillcolor="#e58139ff"] ;
25 -> 26 ;
27 [label="fare <= 6.115\ngini = 0.444\nsamples = 18\nvalue = [6, 12]", fillcolor="#399de57f"] ;
25 -> 27 ;
28 [label="gini = 0.0\nsamples = 1\nvalue = [1, 0]", fillcolor="#e58139ff"] ;
27 -> 28 ;
29 [label="fare <= 37.812\ngini = 0.415\nsamples = 17\nvalue = [5, 12]", fillcolor="#399de595"] ;
27 -> 29 ;
30 [label="age <= 29.75\ngini = 0.337\nsamples = 14\nvalue = [3, 11]", fillcolor="#399de5b9"] ;
29 -> 30 ;
31 [label="age <= 28.25\ngini = 0.469\nsamples = 8\nvalue = [3, 5]", fillcolor="#399de566"] ;
30 -> 31 ;
32 [label="fare <= 13.431\ngini = 0.408\nsamples = 7\nvalue = [2, 5]", fillcolor="#399de599"] ;
31 -> 32 ;
33 [label="fare <= 7.44\ngini = 0.444\nsamples = 3\nvalue = [2, 1]", fillcolor="#e581397f"] ;
32 -> 33 ;
34 [label="gini = 0.0\nsamples = 1\nvalue = [0, 1]", fillcolor="#399de5ff"] ;
33 -> 34 ;
35 [label="gini = 0.0\nsamples = 2\nvalue = [2, 0]", fillcolor="#e58139ff"] ;
33 -> 35 ;
36 [label="gini = 0.0\nsamples = 4\nvalue = [0, 4]", fillcolor="#399de5ff"] ;
32 -> 36 ;
37 [label="gini = 0.0\nsamples = 1\nvalue = [1, 0]", fillcolor="#e58139ff"] ;
31 -> 37 ;
38 [label="gini = 0.0\nsamples = 6\nvalue = [0, 6]", fillcolor="#399de5ff"] ;
30 -> 38 ;
39 [label="fare <= 52.55\ngini = 0.444\nsamples = 3\nvalue = [2, 1]", fillcolor="#e581397f"] ;
29 -> 39 ;
40 [label="gini = 0.0\nsamples = 2\nvalue = [2, 0]", fillcolor="#e58139ff"] ;
39 -> 40 ;
41 [label="gini = 0.0\nsamples = 1\nvalue = [0, 1]", fillcolor="#399de5ff"] ;
39 -> 41 ;
42 [label="sibsp <= 0.5\ngini = 0.405\nsamples = 39\nvalue = [28, 11]", fillcolor="#e581399b"] ;
24 -> 42 ;
43 [label="age <= 75.5\ngini = 0.36\nsamples = 34\nvalue = [26, 8]", fillcolor="#e58139b1"] ;
42 -> 43 ;
44 [label="embarked_C <= 0.5\ngini = 0.334\nsamples = 33\nvalue = [26, 7]", fillcolor="#e58139ba"] ;
43 -> 44 ;
45 [label="fare <= 31.41\ngini = 0.269\nsamples = 25\nvalue = [21, 4]", fillcolor="#e58139ce"] ;
44 -> 45 ;
46 [label="age <= 48.0\ngini = 0.36\nsamples = 17\nvalue = [13, 4]", fillcolor="#e58139b1"] ;
45 -> 46 ;
47 [label="fare <= 26.144\ngini = 0.18\nsamples = 10\nvalue = [9, 1]", fillcolor="#e58139e3"] ;
46 -> 47 ;
48 [label="gini = 0.0\nsamples = 5\nvalue = [5, 0]", fillcolor="#e58139ff"] ;
47 -> 48 ;
49 [label="fare <= 26.419\ngini = 0.32\nsamples = 5\nvalue = [4, 1]", fillcolor="#e58139bf"] ;
47 -> 49 ;
50 [label="gini = 0.0\nsamples = 1\nvalue = [0, 1]", fillcolor="#399de5ff"] ;
49 -> 50 ;
51 [label="gini = 0.0\nsamples = 4\nvalue = [4, 0]", fillcolor="#e58139ff"] ;
49 -> 51 ;
52 [label="age <= 53.5\ngini = 0.49\nsamples = 7\nvalue = [4, 3]", fillcolor="#e5813940"] ;
46 -> 52 ;
53 [label="age <= 50.5\ngini = 0.375\nsamples = 4\nvalue = [1, 3]", fillcolor="#399de5aa"] ;
52 -> 53 ;
54 [label="fare <= 13.0\ngini = 0.5\nsamples = 2\nvalue = [1, 1]", fillcolor="#e5813900"] ;
53 -> 54 ;
55 [label="gini = 0.0\nsamples = 1\nvalue = [0, 1]", fillcolor="#399de5ff"] ;
54 -> 55 ;
56 [label="gini = 0.0\nsamples = 1\nvalue = [1, 0]", fillcolor="#e58139ff"] ;
54 -> 56 ;
57 [label="gini = 0.0\nsamples = 2\nvalue = [0, 2]", fillcolor="#399de5ff"] ;
53 -> 57 ;
58 [label="gini = 0.0\nsamples = 3\nvalue = [3, 0]", fillcolor="#e58139ff"] ;
52 -> 58 ;
59 [label="gini = 0.0\nsamples = 8\nvalue = [8, 0]", fillcolor="#e58139ff"] ;
45 -> 59 ;
60 [label="age <= 39.5\ngini = 0.469\nsamples = 8\nvalue = [5, 3]", fillcolor="#e5813966"] ;
44 -> 60 ;
61 [label="gini = 0.0\nsamples = 2\nvalue = [2, 0]", fillcolor="#e58139ff"] ;
60 -> 61 ;
62 [label="age <= 46.5\ngini = 0.5\nsamples = 6\nvalue = [3, 3]", fillcolor="#e5813900"] ;
60 -> 62 ;
63 [label="gini = 0.0\nsamples = 2\nvalue = [0, 2]", fillcolor="#399de5ff"] ;
62 -> 63 ;
64 [label="fare <= 35.077\ngini = 0.375\nsamples = 4\nvalue = [3, 1]", fillcolor="#e58139aa"] ;
62 -> 64 ;
65 [label="gini = 0.0\nsamples = 2\nvalue = [2, 0]", fillcolor="#e58139ff"] ;
64 -> 65 ;
66 [label="age <= 52.0\ngini = 0.5\nsamples = 2\nvalue = [1, 1]", fillcolor="#e5813900"] ;
64 -> 66 ;
67 [label="gini = 0.0\nsamples = 1\nvalue = [1, 0]", fillcolor="#e58139ff"] ;
66 -> 67 ;
68 [label="gini = 0.0\nsamples = 1\nvalue = [0, 1]", fillcolor="#399de5ff"] ;
66 -> 68 ;
69 [label="gini = 0.0\nsamples = 1\nvalue = [0, 1]", fillcolor="#399de5ff"] ;
43 -> 69 ;
70 [label="age <= 42.0\ngini = 0.48\nsamples = 5\nvalue = [2, 3]", fillcolor="#399de555"] ;
42 -> 70 ;
71 [label="parch <= 0.5\ngini = 0.444\nsamples = 3\nvalue = [2, 1]", fillcolor="#e581397f"] ;
70 -> 71 ;
72 [label="gini = 0.0\nsamples = 2\nvalue = [2, 0]", fillcolor="#e58139ff"] ;
71 -> 72 ;
73 [label="gini = 0.0\nsamples = 1\nvalue = [0, 1]", fillcolor="#399de5ff"] ;
71 -> 73 ;
74 [label="gini = 0.0\nsamples = 2\nvalue = [0, 2]", fillcolor="#399de5ff"] ;
70 -> 74 ;
75 [label="gini = 0.0\nsamples = 4\nvalue = [0, 4]", fillcolor="#399de5ff"] ;
23 -> 75 ;
76 [label="fare <= 387.665\ngini = 0.331\nsamples = 43\nvalue = [34, 9]", fillcolor="#e58139bb"] ;
22 -> 76 ;
77 [label="fare <= 135.64\ngini = 0.308\nsamples = 42\nvalue = [34, 8]", fillcolor="#e58139c3"] ;
76 -> 77 ;
78 [label="fare <= 123.887\ngini = 0.391\nsamples = 30\nvalue = [22, 8]", fillcolor="#e58139a2"] ;
77 -> 78 ;
79 [label="fare <= 75.99\ngini = 0.366\nsamples = 29\nvalue = [22, 7]", fillcolor="#e58139ae"] ;
78 -> 79 ;
80 [label="age <= 23.5\ngini = 0.18\nsamples = 10\nvalue = [9, 1]", fillcolor="#e58139e3"] ;
79 -> 80 ;
81 [label="gini = 0.0\nsamples = 1\nvalue = [0, 1]", fillcolor="#399de5ff"] ;
80 -> 81 ;
82 [label="gini = 0.0\nsamples = 9\nvalue = [9, 0]", fillcolor="#e58139ff"] ;
80 -> 82 ;
83 [label="fare <= 77.008\ngini = 0.432\nsamples = 19\nvalue = [13, 6]", fillcolor="#e5813989"] ;
79 -> 83 ;
84 [label="gini = 0.0\nsamples = 2\nvalue = [0, 2]", fillcolor="#399de5ff"] ;
83 -> 84 ;
85 [label="age <= 59.0\ngini = 0.36\nsamples = 17\nvalue = [13, 4]", fillcolor="#e58139b1"] ;
83 -> 85 ;
86 [label="fare <= 80.754\ngini = 0.305\nsamples = 16\nvalue = [13, 3]", fillcolor="#e58139c4"] ;
85 -> 86 ;
87 [label="gini = 0.0\nsamples = 6\nvalue = [6, 0]", fillcolor="#e58139ff"] ;
86 -> 87 ;
88 [label="fare <= 92.29\ngini = 0.42\nsamples = 10\nvalue = [7, 3]", fillcolor="#e5813992"] ;
86 -> 88 ;
89 [label="sibsp <= 1.5\ngini = 0.5\nsamples = 6\nvalue = [3, 3]", fillcolor="#e5813900"] ;
88 -> 89 ;
90 [label="fare <= 86.738\ngini = 0.48\nsamples = 5\nvalue = [2, 3]", fillcolor="#399de555"] ;
89 -> 90 ;
91 [label="age <= 49.0\ngini = 0.444\nsamples = 3\nvalue = [2, 1]", fillcolor="#e581397f"] ;
90 -> 91 ;
92 [label="gini = 0.0\nsamples = 2\nvalue = [2, 0]", fillcolor="#e58139ff"] ;
91 -> 92 ;
93 [label="gini = 0.0\nsamples = 1\nvalue = [0, 1]", fillcolor="#399de5ff"] ;
91 -> 93 ;
94 [label="gini = 0.0\nsamples = 2\nvalue = [0, 2]", fillcolor="#399de5ff"] ;
90 -> 94 ;
95 [label="gini = 0.0\nsamples = 1\nvalue = [1, 0]", fillcolor="#e58139ff"] ;
89 -> 95 ;
96 [label="gini = 0.0\nsamples = 4\nvalue = [4, 0]", fillcolor="#e58139ff"] ;
88 -> 96 ;
97 [label="gini = 0.0\nsamples = 1\nvalue = [0, 1]", fillcolor="#399de5ff"] ;
85 -> 97 ;
98 [label="gini = 0.0\nsamples = 1\nvalue = [0, 1]", fillcolor="#399de5ff"] ;
78 -> 98 ;
99 [label="gini = 0.0\nsamples = 12\nvalue = [12, 0]", fillcolor="#e58139ff"] ;
77 -> 99 ;
100 [label="gini = 0.0\nsamples = 1\nvalue = [0, 1]", fillcolor="#399de5ff"] ;
76 -> 100 ;
}